0.62945,0.92978,0.58441,-0.21555,0.38966,-0.020471,-0.762,0.39815,0.62857,0.66166,-0.84829,-0.32575,0.37843,0.99227,-0.83113,-0.72786,-0.19638,0.88957,-0.51662,-0.29368,0.094018,-0.83775,0.63526,0.10031,-0.54816,0.9595,-0.55651,-0.94156,0.042272,0.77034,-0.78648,-0.60438,0.61098,0.42539,0.6363,-0.092405,-0.87906,0.96813,-0.89465,0.4022,-0.9348,0.71105,-0.23076,-0.31225,-0.14948,0.39978,0.43672,-0.46706,0.27542,-0.55192,0.83198,-0.92847,-0.5143,0.093186,-0.52754,-0.16768,-0.36385,0.44209,-0.26837,-0.81236,-0.30457,-0.28154,-0.45946,0.51015,0.53771,-0.18609,0.3573,0.39333,0.05536,0.17197,0.53806,-0.58119,-0.75383,-0.001768,0.12996,0.24192,0.9688,-0.39739,-0.30424,0.079964,-0.64377,-0.063064,-0.73175,-0.60668,-0.40351,0.067544,0.20694,-0.87682,0.78095,-0.73583,0.48006,0.19588,-0.54209,-0.817,0.3895,-0.024792,-0.88119,0.31115,-0.6635,-0.63113,0.97587,0.24134,0.061259,0.48509,0.87146,-0.073479,0.4054,0.05009,0.3074,-0.54266,-0.36514,0.7335,-0.94973,0.91477,0.44635,0.62623,0.6089,-0.96364,-0.63572,0.35329,-0.17681,0.99231,-0.38217,-0.24363,-0.64575,0.79178,0.020305,0.62321,-0.31342,-0.35508,-0.01531,0.32531,-0.097319,0.17642,-0.9154,-0.96149,-0.33667,-0.31525,-0.60905,0.087326,0.0077755,-0.73299,0.19505,0.042406,0.33693,0.5135,0.76568,0.52517,-0.43323,-0.34792,-0.76593,-0.20374,-0.83151,0.71864,-0.85793,0.86222,-0.59585,0.11339,-0.22722,-0.22014,0.33809,-0.695,-0.78397,0.010266,-0.6579,0.10777,-0.39963,-0.14121,-0.85182,-0.7227,-0.86329,0.36008,0.71275,-0.1152,-0.19229,0.87132,0.25051,0.29107,0.38881,0.34287,0.45383,-0.62844,-0.73777,0.13872,-0.44225,0.71714,-0.82,0.57806,0.42082,0.16944,0.65315,-0.047841,-0.27143,-0.17223,0.60452,-0.61247,0.035691,-0.20742,-0.8971,-0.96665,-0.60356,0.68897,-0.33134,-0.37778,-0.93923,-0.12689,-0.0222,-0.67685,-0.34412,-0.18508,0.71379,0.79997,0.61022,0.2362,-0.18454,-0.18725,0.48073,0.62059,0.51044,0.85897,0.49702,-0.30664,0.56275,0.85498,-0.90584,0.88067,0.58516,0.22948,0.60105,0.51577,0.92694,-0.70307,0.59697,0.7202,0.77527,-0.78313,0.92399,-0.7721,0.51183,0.26041,-0.78391,-0.080716,-0.14561,0.30102,0.16219,0.08656,-0.30938,-0.40893,0.14137,0.35075,-0.70854,0.077051,0.83153,0.055765,-0.89204,-0.72799,0.30106,-0.75228,0.79675,0.85535,0.59191,0.30504,-0.37705,-0.68956,0.60094,0.039865,-0.83337,0.64199,-0.23426,0.75977,-0.68638,0.74264,0.70136,-0.49198,-0.56201,-0.60033,0.17149,-0.63294,0.047184,0.63087,0.85234,0.39138,0.75527,-0.54106,-0.72062,0.054868,0.91595,-0.80925,-0.51643,0.091772,0.30691,0.63197,0.41222,0.5724,-0.32049,-0.64952,0.55067,-0.16613,0.69261,0.93756,-0.056864,0.21752,0.74989,-0.17246,-0.084492,-0.24126,0.41782,-0.54672,0.79788,0.48105,-0.064966,0.0096212,0.94029,-0.39609,0.99959,0.84543,-0.052226,-0.57357,0.17564,-0.74484,0.90425,-0.99552,0.69936,0.062508,0.81066,0.13854,0.25401,-0.8928,-0.50216,-0.47959,-0.37043,0.89202,-0.25903,0.49532,0.46912,0.78695,-0.048242,0.75237,0.36079,0.8749,0.19409,0.3044,-0.44512,-0.20554,-0.33608,0.79119,0.77104,0.95267,-0.76338,-0.77345,-0.2978,0.61983,0.0018798,0.70122,0.33617,-0.93074,0.64929,-0.095653,-0.77826,0.2509,-0.40343,0.40553,-0.89285,-0.86005,0.46421,0.58776,0.50575,0.44833,0.57765,0.84468,-0.53015,0.13671,-0.58714,-0.83148,-0.29224,0.40178,0.63538,0.4985,-0.10842,0.083036,-0.79518,0.58047,-0.53139,0.65796,0.87855,0.79024,0.32031,-0.79257,0.72202,-0.77237,0.61875,-0.48311,-0.59241,0.90152,-0.42882,-0.8883,-0.80755,0.33065,0.90116,-0.27616,0.83784,-0.44206,0.77577,-0.91969,-0.68217,-0.9205,-0.082218,-0.83284,0.8491,-0.37076,0.35038,-0.52639,0.39061,-0.51299,0.1412,0.24634,0.28112,-0.65727,-0.19941,-0.62322,-0.76205,-0.791,0.094573,0.91428,0.11871,-0.24934,0.034509,-0.66922,-0.1265,0.50261,0.45864,0.16124,-0.54139,0.94222,-0.78413,0.085215,0.66222,-0.10425,-0.76901,0.84513,0.04463,0.48813,-0.77918,0.080446,-0.92079,0.41088,0.83908,0.84542,0.13374,0.67645,0.27708,0.86155,0.91929,0.53675,0.93052,-0.61358,-0.75954,0.2454,0.66411,0.2909,0.15145,-0.76959,-0.038392,0.27709,-0.11501,0.23761,0.77561,-0.24848,-0.99954,0.85021,-0.95474,-0.32807,0.96783,-0.99442,-0.10332,-0.5248,-0.0091352,0.62218,-0.37636,-0.79456,-0.52165,-0.79266,0.42085,0.26037,0.068028,-0.043083,0.090524,-0.83433,-0.50892,0.6787,-0.75397,-0.42696,-0.18705,0.041032,0.58438,0.85993,0.78138,-0.77982,-0.28089,0.31899
0.81158,-0.68477,0.91898,0.31096,-0.3658,-0.10883,-0.0032719,0.78181,-0.51295,0.17053,-0.8921,-0.67564,0.4963,-0.84365,-0.20043,0.73858,-0.84807,-0.018272,-0.19218,0.64239,-0.40736,0.85877,0.58966,0.24495,-0.65858,-0.12226,-0.76516,0.85771,-0.53681,0.82657,0.30751,-0.93892,0.15344,0.00094325,0.63509,-0.13522,-0.20148,-0.66566,0.47572,0.33268,0.1224,0.28953,0.16597,0.16814,-0.37456,0.27706,0.9373,-0.69269,0.91539,0.33567,-0.9977,-0.64825,0.83485,-0.14854,-0.76121,0.68386,-0.76157,0.044991,0.52701,0.050809,-0.70001,0.47268,-0.60589,-0.24521,-0.66549,0.49741,-0.009646,0.16558,-0.040953,-0.50653,0.16289,0.10458,-0.58901,0.071602,0.28062,0.14742,0.71788,-0.40893,-0.10795,0.41383,-0.28073,0.82426,-0.5748,-0.81326,-0.9073,-0.78169,0.052205,0.56035,0.59792,0.44545,-0.53035,0.57873,0.28388,-0.18937,0.5162,0.53792,-0.36838,0.44585,-0.6075,-0.57594,-0.65914,-0.69126,0.66485,-0.15133,-0.084227,-0.57567,-0.69282,-0.34833,0.86523,-0.87163,0.62908,0.26238,-0.15778,-0.46936,-0.30512,-0.23339,0.97221,0.36768,-0.91636,0.9766,0.20528,-0.29093,0.45221,0.40868,0.65929,-0.80182,0.81273,-0.028697,0.87205,0.10452,0.38949,-0.437,-0.51819,-0.26769,0.94592,-0.83225,-0.69553,0.47193,0.44033,0.96955,0.29362,-0.95689,0.76803,-0.25537,-0.58645,-0.16591,0.82742,0.76497,0.7924,-0.087151,0.62936,0.030734,-0.6722,0.94844,0.77548,-0.61843,-0.092213,-0.68701,0.55111,0.18181,0.00042265,-0.96076,0.033994,-0.45716,0.87712,0.36013,-0.19723,-0.48543,-0.21223,0.19777,-0.12735,0.4119,-0.19513,0.80871,0.097133,0.63743,0.086124,-0.75356,-0.48643,0.67434,-0.2523,-0.61392,-0.12992,-0.8772,0.49323,0.82213,-0.35812,-0.36433,-0.37628,0.89622,0.35374,0.8162,0.0647,-0.38173,-0.15155,-0.13526,0.98849,0.41015,-0.3913,0.60184,-0.60986,0.23065,0.19329,-0.85753,-0.58306,-0.90157,-0.55938,0.43127,0.60593,0.76815,-0.91322,-0.61313,-0.86555,0.86437,-0.92724,-0.22762,0.38564,0.114,0.96091,-0.18097,0.086599,0.24561,-0.26543,-0.89737,-0.57268,-0.98833,-0.34192,0.98238,-0.78986,-0.22174,-0.82819,0.23963,0.97498,-0.19623,-0.60253,-0.92777,0.080408,-0.37815,0.20659,-0.5394,-0.080249,0.91707,-0.66262,0.45326,0.2743,0.40504,0.89363,-0.69631,0.14366,0.80733,0.17009,-0.43559,-0.72904,-0.93585,-0.95876,0.57778,0.032541,-0.06518,0.45689,-0.86284,-0.53325,0.8346,0.38769,-0.99868,0.83576,0.97837,0.022213,0.2758,-0.8307,-0.91184,-0.34793,-0.83369,0.11713,-0.13756,0.044465,0.21468,-0.65169,0.47415,-0.40237,-0.99728,-0.403,0.25581,-0.061799,-0.8289,-0.2122,0.44998,-0.80911,-0.29488,0.30092,0.88634,-0.020689,-0.80333,0.66272,0.44618,-0.4253,-0.6136,0.21545,-0.2397,-0.18387,0.649,0.085983,-0.4925,-0.758,0.0054925,0.44442,0.72935,0.48644,0.069663,-0.29272,-0.08695,-0.71733,-0.024001,-0.56966,-0.82078,0.72851,0.12852,-0.0069254,-0.6135,-0.71447,-0.6616,0.95171,-0.24055,-0.43311,0.60125,0.28039,-0.50246,0.82636,0.05405,-0.49429,0.75494,0.45348,-0.81688,0.24478,-0.1592,0.27461,-0.06836,-0.26338,0.22018,-0.25724,0.026728,-0.13881,0.654,-0.98778,-0.041162,0.49749,-0.034987,-0.95752,0.18647,-0.92195,-0.29086,-0.89141,-0.62648,-0.33601,-0.32426,-0.64234,-0.097752,-0.094003,0.6984,-0.24958,-0.3067,-0.0069595,0.013494,-0.2499,0.90007,0.4997,-0.06179,-0.0065556,0.22736,-0.053939,-0.34595,-0.20221,-0.2383,-0.32279,0.12648,-0.30563,-0.98755,0.96235,0.6837,0.017574,-0.43668,0.91823,0.42542,-0.070601,0.87023,-0.035389,0.3686,-0.89539,-0.24498,-0.43212,-0.68235,0.21762,-0.60418,0.98669,-0.21079,0.59363,-0.72357,-0.23084,0.92851,-0.078704,0.44965,0.20507,0.035722,-0.48694,-0.53325,0.62184,0.97714,0.16459,0.025331,-0.83749,-0.23592,0.20205,0.68967,0.92183,0.50356,0.12576,-0.94737,0.31755,-0.34005,-0.77615,-0.95428,0.85307,0.40045,0.10697,-0.12015,-0.070744,-0.039256,0.80614,-0.63679,0.14451,-0.72227,0.71969,-0.04953,-0.63554,-0.40481,-0.6422,0.7227,0.85602,0.41928,-0.83944,-0.015374,-0.20529,-0.11419,-0.56671,-0.79668,-0.061281,-0.98994,0.284,-0.35935,-0.24718,-0.71789,0.18837,0.95554,-0.82183,-0.43403,0.25653,0.37887,0.14419,-0.87292,0.50767,0.027042,0.68469,-0.24982,-0.86696,-0.23011,-0.091628,-0.093958,-0.88988,0.72692,-0.70107,0.010585,-0.86985,0.56806,0.95958,-0.69409,-0.51183,0.63514,-0.66798,0.42091,0.79034,-0.032562,-0.94148,0.07113,0.37733,0.96607,-0.040771,-0.35897,0.37757,0.90079,-0.61251,-0.47514,0.15994,-0.84522,0.90361,0.81093,-0.33302,0.058662,-0.018658,-0.44155,-0.94632,-0.97399
-0.74603,0.94119,0.31148,-0.65763,0.90044,0.29263,0.91949,0.91858,0.85853,0.099447,0.061595,0.58857,-0.098917,-0.11464,-0.48026,0.15941,-0.52017,-0.021495,-0.80709,-0.96919,0.48939,0.55143,0.28864,0.17409,-0.54467,-0.77776,-0.40665,0.46066,-0.022205,0.59237,-0.011652,0.48815,-0.63416,-0.057823,0.44488,0.65063,0.053752,-0.78757,-0.46176,0.078253,0.76373,-0.24746,-0.49639,-0.78446,-0.67703,-0.93279,0.062668,-0.43799,-0.51859,0.68878,-0.075102,0.44352,-0.46188,0.28889,0.21461,0.66583,0.87966,0.98741,0.25579,0.060688,0.17218,-0.21059,0.64344,-0.56796,0.72396,0.65117,-0.62058,0.63079,0.6027,0.33283,0.85663,0.25977,-0.70697,-0.10963,-0.16594,-0.89584,0.57112,-0.33413,-0.89152,0.99898,-0.88659,-0.79198,0.78988,-0.38527,0.010856,0.65162,0.45942,-0.32483,0.46868,-0.77929,0.46992,-0.26469,-0.031039,-0.79031,-0.13472,-0.20799,0.54544,0.062419,-0.36504,-0.84531,-0.48442,-0.23731,0.19498,-0.14129,-0.51904,-0.80296,0.90691,0.092899,-0.67298,0.53466,0.57815,-0.28985,-0.6318,0.84916,0.32123,0.23456,-0.94002,0.56747,-0.78612,0.53366,0.50104,0.94252,0.56574,0.45903,0.53384,-0.91167,0.25785,0.7889,-0.75045,0.95826,0.94547,-0.53923,0.43009,0.61352,-0.62159,0.9496,-0.30398,0.58936,0.44351,0.43136,-0.38451,0.11968,0.88746,0.87427,0.3077,0.94357,0.11657,-0.4301,0.65316,0.42759,-0.35029,0.31506,-0.35156,0.14168,-0.87073,-0.48284,-0.14418,0.12411,0.46854,-0.08124,-0.56401,-0.12965,-0.71369,-0.7985,0.18097,-0.26562,0.66673,-0.40489,-0.99321,0.80212,-0.65229,0.29026,-0.36396,-0.93364,-0.90252,0.45652,-0.12193,0.0087957,-0.98048,0.943,0.16316,-0.31671,-0.81697,-0.0074222,-0.52614,0.39927,0.022818,-0.095585,-0.41709,-0.87794,-0.58479,0.10435,0.42331,-0.47233,0.45773,0.49832,0.7097,0.11712,0.16038,-0.71498,-0.34632,-0.24678,0.80398,-0.63604,-0.090068,-0.90074,-0.54758,0.15548,0.99896,0.096266,0.38325,0.50885,0.90158,0.67018,0.4923,0.2196,0.64816,-0.47407,-0.53043,-0.99932,-0.32374,0.59325,0.48974,0.18533,-0.20432,0.22061,-0.55308,-0.5926,0.64288,-0.1414,0.00099778,-0.47875,-0.6819,0.26386,-0.20927,0.23618,-0.93946,-0.54314,0.56653,0.15977,-0.098234,0.58009,0.50339,-0.81102,0.30254,0.91287,0.040381,0.69582,-0.42796,0.81705,-0.85328,0.95192,-0.33576,0.65428,0.36296,-0.8152,-0.34722,0.31339,-0.18634,-0.4012,0.20168,0.019679,-0.81626,-0.43281,-0.72539,-0.02017,-0.26633,-0.96776,0.46775,0.37344,-0.37188,-0.076524,0.80355,0.40506,-0.13315,0.08609,0.45722,0.39343,0.40794,-0.99382,-0.32383,-0.099224,-0.12516,-0.86523,0.96113,0.21483,-0.92882,0.18684,0.71475,-0.35705,0.9457,0.71919,-0.93033,-0.44232,-0.65819,0.23284,0.896,-0.57346,-0.075964,0.91922,-0.88062,-0.73477,0.7127,-0.74912,-0.322,-0.16008,0.79942,-0.42103,-0.75964,0.3365,-0.86373,-0.0043234,0.52069,0.65193,-0.92624,-0.13708,-0.38206,0.66551,-0.89555,-0.998,-0.93817,0.80881,0.36492,0.47765,-0.67412,-0.3614,0.32794,-0.76229,0.53449,0.61219,0.031546,0.81688,0.9951,0.62263,-0.85232,0.12171,0.31122,-0.59282,-0.84354,-0.51819,0.46144,-0.38385,-0.25058,0.12999,0.28873,-0.11452,0.68816,-0.39119,0.19639,-0.51613,0.41741,-0.5056,-0.65223,-0.44961,0.10099,-0.97241,-0.23888,-0.21914,-0.34019,-0.33076,0.77981,-0.23747,0.54999,-0.68358,-0.18536,-0.38095,0.73027,0.56594,0.6576,0.60814,-0.46375,0.26916,0.14825,0.078621,-0.49256,-0.25131,0.72398,-0.66622,0.060981,-0.038199,-0.6942,-0.054805,0.23877,-0.20187,0.079992,0.31369,0.11366,-0.47428,0.23079,-0.28834,-0.040173,0.21139,-0.81275,0.16893,-0.71447,0.72613,0.0005451,0.3423,-0.4247,0.71662,0.40428,-0.50867,0.9336,-0.27777,-0.046984,0.37236,-0.32182,0.66573,-0.034654,0.58308,-0.30738,0.63305,0.092626,-0.60173,-0.64668,-0.36242,0.35066,0.93294,-0.15138,-0.10119,0.18712,-0.20839,0.26115,0.20309,-0.1394,-0.31516,-0.56361,0.38287,0.13013,-0.30136,0.25391,0.61064,-0.66729,0.050146,0.4931,0.81828,-0.66103,0.88866,-0.27906,0.66802,-0.04178,-0.894,0.62204,-0.92146,-0.69981,0.56503,-0.78936,0.71509,-0.5749,0.46443,-0.002755,-0.81281,0.59548,-0.54928,-0.73594,-0.89909,0.89878,-0.25298,0.24373,0.62885,-0.00054805,0.65779,0.79554,0.5314,0.89056,-0.97967,-0.80328,-0.41605,-0.45233,0.25516,0.84791,-0.026522,-0.49969,0.068322,0.60677,-0.18834,-0.348,0.94049,0.66954,-0.16223,0.40462,-0.67026,-0.3581,0.1704,0.58733,0.20316,-0.70517,-0.96726,-0.81826,0.028476,-0.34293,0.80114,0.82397,-0.19494,0.38532,0.25295,0.61165,0.53527,0.00083838,0.43614
0.82675,0.91433,-0.92858,0.41209,-0.93111,0.41873,-0.31923,0.094431,-0.30003,0.83439,0.55833,-0.37757,-0.83236,-0.78669,0.60014,0.09972,-0.75336,-0.32456,-0.73605,-0.91395,-0.62209,-0.026417,-0.24278,-0.58452,-0.1286,-0.48387,-0.36244,-0.022782,0.24812,-0.80258,0.5581,4.4871e-05,-0.52014,-0.88076,-0.70027,-0.83306,-0.1664,-0.25518,-0.15433,0.39621,0.33835,-0.61815,-0.41912,0.81262,-0.64247,-0.86239,-0.34971,-0.11983,0.35224,-0.31108,-0.1513,-0.053028,0.531,0.29524,-0.099725,-0.48712,0.2911,-0.56265,0.54396,0.72228,-0.47571,0.36683,-0.14016,0.58081,0.97974,0.57993,-0.0099884,0.75803,-0.54431,-0.83303,0.16018,-0.93602,-0.62186,-0.75214,-0.58805,0.8624,0.026755,-0.065864,-0.64578,-0.4243,0.043771,0.49109,-0.85709,-0.087885,0.52285,-0.3238,0.41451,0.21573,-0.89734,-0.76501,0.9412,-0.58794,-0.69631,-0.77543,0.311,-0.45412,0.39287,-0.78236,-0.36714,0.8276,-0.2064,-0.67773,-0.32938,-0.75025,0.5278,0.64715,0.081768,-0.20224,0.84219,0.3424,0.70453,0.99401,0.45155,-0.55246,-0.23226,0.15099,0.071328,0.068275,0.23289,-0.3266,0.16707,-0.3071,0.38758,-0.55145,0.86896,0.11459,-0.79693,-0.72491,0.46117,0.098617,-0.34449,0.42226,0.71236,0.0075616,0.33424,0.3027,-0.75668,0.089812,0.7556,0.67794,-0.72255,-0.39836,0.098316,0.65907,-0.8559,0.97595,0.19774,0.34645,-0.21995,0.76881,-0.50754,0.90183,-0.39655,0.9937,-0.12763,0.79573,0.93211,0.38961,-0.13944,-0.89932,0.14323,0.66444,0.11874,0.015698,-0.11873,-0.52142,-0.19274,-0.15028,-0.55865,0.87876,-0.94779,0.10462,0.21727,0.064853,0.10546,-0.64838,-0.42515,-0.30548,0.064566,-0.88613,-0.76776,0.8658,0.22925,0.28463,0.91469,0.45036,-0.87879,0.50446,0.70071,0.16928,-0.36379,-0.93412,0.74295,0.51753,-0.0032928,-0.92163,0.92481,0.51326,0.061929,-0.043051,0.76068,0.75436,0.40413,-0.81402,-0.74547,-0.8178,0.073576,-0.1334,0.96196,-0.26199,0.95797,-0.30748,-0.004846,0.79085,-0.69034,-0.66622,0.65596,0.36113,0.057118,0.081757,0.66467,0.49175,0.78453,-0.6742,-0.33266,0.60215,-0.37523,0.65442,0.68217,0.91269,0.043179,-0.10869,-0.52624,0.97047,0.98435,0.13429,0.39263,0.30399,-0.77214,0.20631,0.10228,-0.096251,-0.2633,0.75515,0.72924,-0.11092,0.90763,0.56971,0.39827,0.49439,0.64465,-0.92715,0.79496,-0.32003,0.19726,-0.52426,0.32355,-0.41963,0.87663,0.18317,-0.77508,0.94838,-0.19582,0.10162,0.0094646,0.38975,0.47896,0.79191,-0.33602,0.46755,0.789,-0.93922,-0.16096,-0.19534,0.48261,-0.67535,0.068582,0.55399,-0.23678,-0.82506,0.71896,-0.052764,0.49237,0.77678,0.28959,0.17673,0.77247,0.17036,-0.83126,0.61293,0.49698,-0.94474,0.51568,0.16486,-0.20147,-0.46198,-0.88072,-0.23412,0.65261,0.29269,0.31606,0.09001,0.79955,-0.73543,-0.19756,-0.52025,-0.86952,-0.86326,0.13822,0.39849,0.42848,0.87195,0.16821,-0.22083,0.089365,-0.32431,0.90168,0.45327,0.36662,-0.16368,-0.012236,0.3607,-0.28375,-0.71667,0.13182,0.8216,-0.22161,-0.23971,-0.90028,-0.077758,0.58129,0.019906,0.034688,-0.24079,-0.75898,-0.011087,0.8764,0.039834,-0.087299,-0.48007,-0.47765,-0.19527,-0.12613,-0.020761,-0.66152,-0.37649,-0.42386,0.93541,0.20863,0.12067,0.98586,-0.89162,0.25127,-0.98798,0.91975,-0.052579,0.85174,0.47675,-0.31579,0.14923,0.0028292,-0.87014,-0.6694,-0.42711,-0.52102,0.37516,-0.86394,0.13324,-0.35504,0.076501,0.66503,-0.27354,-0.026135,0.53612,0.90506,0.80299,-0.83236,0.8062,0.71943,0.36973,-0.69492,0.41718,0.23066,-0.89558,-0.55789,0.98076,0.42405,-0.51743,0.55898,0.69552,-0.46312,0.64741,0.30124,0.21307,0.0091004,-0.15651,0.14051,-0.40165,-0.83075,-0.30417,0.48735,-0.40498,0.23831,0.26691,-0.76742,-0.24662,-0.65875,0.80923,-0.74347,0.67836,-0.2712,0.69246,0.27315,0.96588,0.027358,0.065999,0.48912,0.61259,0.22709,-0.51272,0.76723,-0.83019,0.97091,0.44052,0.54797,0.55429,0.74644,-0.57247,0.64763,-0.69732,-0.63882,0.061556,-0.70079,0.72468,-0.90106,0.6907,0.76747,-0.65176,0.65781,-0.73729,0.98781,-0.82436,-0.72268,0.86646,0.98261,0.85372,-0.46368,-0.48031,0.58431,0.38213,0.13571,0.32347,0.18155,-0.33742,0.2366,-0.63113,-0.48723,-0.6675,-0.21181,-0.80563,-0.12195,0.68355,-0.0055397,0.30583,-0.56176,0.19816,0.29957,-0.73305,0.74485,0.43853,0.068286,-0.070404,0.24914,0.021267,0.64794,-0.067376,-0.40713,0.99685,-0.9953,-0.23742,-0.98473,0.76688,0.063297,0.68127,-0.81457,0.82631,0.55512,-0.77066,-0.26312,-0.10645,-0.46363,0.69321,0.90283,-0.56848,-0.59237,0.36164,-0.34712,-0.56789,0.65403,-0.21776
0.26472,-0.029249,0.69826,-0.93633,-0.12251,0.50937,0.17054,-0.72275,-0.60681,-0.42832,0.86802,0.057066,-0.54205,0.9238,-0.13717,-0.71009,-0.63218,0.80011,0.8841,-0.66202,0.37355,-0.12828,0.62316,-0.39751,-0.3778,-0.18256,-0.15167,0.15705,0.35827,-0.47626,0.43007,-0.040156,0.77302,0.36394,0.31921,-0.73366,0.31372,-0.60376,0.095742,0.33306,-0.61913,-0.14349,0.23418,0.75931,-0.15423,-0.3608,-0.78874,0.054285,-0.42187,0.56104,-0.078167,-0.69456,-0.62268,0.35803,-0.082549,0.22692,-0.041074,-0.7884,0.86571,-0.030293,-0.91109,0.40809,0.77554,0.89861,0.028847,-0.36295,-0.70478,0.97782,-0.0038114,0.25192,-0.96603,0.22943,-0.9147,-0.019285,0.89587,0.45732,-0.6448,0.2964,0.32562,-0.17095,-0.3283,0.47253,-0.51503,-0.79666,0.26214,-0.41205,0.56275,0.48251,-0.85423,0.28144,0.73386,-0.82667,0.56386,0.56886,-0.78049,-0.92553,-0.74934,0.26353,-0.56487,0.41343,-0.85201,0.51622,-0.40155,-0.95113,0.51865,-0.64998,0.35947,-0.16981,0.58932,0.43043,0.011273,-0.55166,-0.25927,-0.25287,0.25469,0.060103,-0.82585,0.77072,0.87932,0.32476,0.10359,0.77309,-0.9804,-0.46189,-0.78422,0.54499,-0.21829,-0.21999,0.29295,-0.33915,0.67561,0.24915,-0.43698,-0.020811,0.17288,-0.53752,0.76831,0.37245,0.16487,-0.13348,-0.048854,0.87882,0.45677,0.69817,-0.18655,0.7283,-0.70225,0.32856,-0.0041941,0.44171,-0.31457,0.4447,-0.97664,0.10708,0.65326,0.18672,0.24011,-0.14709,0.38751,-0.54262,-0.75562,0.23478,-0.99084,0.17122,0.88384,0.15785,-0.21965,-0.76159,-0.9974,-0.55763,0.90936,-0.56378,0.82039,0.43299,-0.45038,-0.27926,0.0033182,-0.8157,-0.44122,-0.099352,-0.88469,-0.21866,-0.97804,-0.55747,0.24052,-0.54023,0.45138,-0.78028,0.82329,-0.42978,-0.73238,-0.89227,-0.34262,0.99043,0.61798,0.89265,0.35788,0.99096,0.80242,-0.48633,-0.057796,0.5697,-0.24509,-0.073022,-0.9827,0.18807,0.52422,0.76849,-0.74593,-0.58331,-0.43346,-0.16275,0.51029,0.16504,-0.71218,-0.62382,-0.41326,-0.53269,-0.89713,-0.58454,0.10514,-0.74893,-0.51479,0.67681,-0.54079,-0.53404,0.16905,0.35172,-0.29099,0.14594,-0.81967,0.688,0.40447,0.11895,-0.1953,0.92393,0.039432,-0.86768,0.95713,0.19976,0.61081,-0.33314,0.88364,-0.97128,-0.88809,-0.8292,-0.85281,-0.45834,0.59252,-0.47898,0.44581,-0.34751,-0.00070244,0.69342,-0.77194,-0.5127,-0.76487,0.50907,-0.48915,-0.5934,0.031531,-0.60544,-0.40964,0.7418,-0.19008,-0.17716,0.04948,0.03075,0.6795,-0.12566,-0.50595,0.5064,-0.28374,-0.63632,-0.8591,-0.98869,-0.49387,0.0038068,0.13537,-0.47855,-0.31904,0.89941,-0.064179,-0.53366,0.79282,-0.13313,-0.50612,0.33536,0.94418,0.2028,0.13568,0.79831,0.91422,-0.15799,0.3953,0.11936,-0.46258,-0.94066,0.98241,-0.24085,0.77927,0.65561,-0.56427,0.74095,0.05396,0.19531,-0.32818,-0.83006,0.75007,0.14271,-0.38403,-0.22144,-0.1941,0.55061,0.99523,0.44145,0.96399,0.059491,0.21712,-0.023029,0.72544,-0.24235,0.97385,-0.12421,0.86323,0.77044,0.48002,0.62567,0.37058,-0.81808,-0.59101,0.22981,0.98102,-0.36186,0.96319,-0.86443,0.24085,-0.89235,-0.90431,0.51795,-0.81038,0.76846,-0.3914,-0.46038,0.90441,-0.88937,-0.49931,0.79194,0.032865,0.22545,-0.67505,0.21792,0.15027,0.60382,0.19204,0.90239,0.48169,0.95288,0.63424,0.72788,-0.44601,-0.28284,0.82444,0.37426,0.041701,0.9737,0.93709,0.62264,0.95229,-0.07341,0.99075,-0.18476,-0.47556,-0.53382,-0.4036,-0.36331,-0.32458,-0.78975,0.35545,-0.58348,-0.68889,0.91612,-0.75475,0.14237,-0.80811,-0.93262,-0.024179,0.24585,0.90969,0.16556,-0.48381,0.62123,-0.56965,0.42929,0.22138,-0.17737,0.95326,0.062253,0.16436,0.92349,-0.2298,0.30095,-0.66931,0.9722,0.75144,0.0086485,-0.20161,0.44719,-0.49418,0.36047,-0.65704,-0.25963,0.14178,0.41928,0.096944,-0.34645,0.68436,-0.55562,0.97612,0.73745,-0.15105,-0.57104,0.26856,0.35756,0.30784,-0.23211,-0.83461,-0.40379,-0.7478,-0.0065586,0.14661,-0.54538,-0.59451,0.79281,-0.85743,0.75775,-0.22427,-0.51081,-0.57078,0.51957,0.20896,0.59597,0.7638,0.94318,-0.14588,-0.98341,0.52769,0.75613,-0.70911,-0.93101,-0.14699,0.20555,0.82439,-0.093497,-0.23396,-0.90868,0.97973,-0.53744,-0.28144,-0.072573,-0.70189,0.33048,0.54261,-0.23702,0.76481,0.20314,0.52814,0.3453,0.2025,-0.95217,-0.26641,-0.73749,0.45648,-0.22957,0.70438,0.90307,0.1166,0.97491,0.28042,0.77353,0.22184,0.33291,0.74639,-0.062372,0.7616,0.36504,-0.2019,-0.97518,-0.98441,-0.31758,0.10048,-0.2086,-0.308,-0.84252,0.91743,0.8464,0.099758,-0.93188,-0.48204,-0.93299
-0.80492,0.60056,0.86799,-0.44615,-0.23688,-0.44795,-0.55238,-0.70141,-0.49783,0.5144,-0.74019,-0.6687,0.82667,-0.99073,0.8213,0.70606,-0.52009,-0.26151,0.91227,0.29823,-0.63298,-0.10643,0.065651,-0.058153,0.84676,0.18979,0.015717,-0.52543,-0.20897,-0.32929,0.80744,0.80944,-0.94265,-0.91514,0.03719,-0.65322,0.25595,-0.020625,0.88547,-0.64374,-0.26217,-0.035956,-0.46944,0.63552,-0.81154,0.061729,0.22192,-0.085151,0.34362,0.35066,0.54032,-0.31775,-0.425,0.27157,0.32389,0.1645,0.27863,-0.78061,0.94548,-0.21309,0.50987,-0.11539,-0.21763,-0.34487,0.76856,0.068128,-0.89005,-0.99896,0.8017,0.32189,-0.75828,-0.27518,0.2704,0.706,-0.83586,0.47568,-0.20282,-0.94954,-0.33834,-0.07032,-0.64866,0.12372,-0.89249,0.99078,-0.82022,0.49263,-0.42405,-0.79037,-0.82295,-0.34237,-0.82753,0.54387,-0.79879,-0.41686,0.86752,0.34659,-0.7397,-0.747,-0.49792,0.11558,0.36819,0.74222,-0.094815,-0.41963,0.4813,-0.67286,-0.92687,-0.63852,0.15479,0.28412,0.27132,0.3049,0.68312,-0.825,-0.9567,-0.44986,0.60418,0.79801,-0.29109,-0.51167,0.16714,-0.09061,0.68643,0.34606,-0.63554,-0.37612,-0.89077,0.85471,0.6663,0.23894,0.47814,0.18122,0.4621,0.7541,0.35022,-0.19302,-0.81144,0.78727,-0.85863,-0.058751,-0.27508,0.96181,0.15352,-0.25493,0.33386,-0.22223,0.79943,-0.75437,0.38961,-0.96277,-0.24862,-0.19984,0.07981,0.030917,-0.21093,0.0076802,0.39078,0.67254,0.89043,0.66838,0.34233,0.040259,0.53336,0.52577,0.31183,0.73377,-0.2791,-0.0098662,-0.62164,-0.034657,-0.13881,0.54473,0.8182,-0.6414,-0.517,-0.62242,0.52309,-0.7043,0.89246,0.16494,0.95953,-0.45357,0.14652,0.67411,0.20052,0.15211,0.11311,-0.78052,0.27855,0.65546,0.34293,0.61013,0.30024,-0.62686,-0.28698,0.52735,-0.193,0.92486,0.081101,-0.26182,-0.19206,-0.070091,0.46991,-0.98133,0.45416,-0.51783,-0.30487,-0.2139,-0.53552,-0.11811,-0.73244,-0.68856,0.48481,0.16549,0.21192,-0.81074,-0.38126,-0.087149,0.51375,-0.56143,0.91509,0.64479,-0.74081,-0.66488,0.87224,0.86494,0.65983,-0.5021,-0.13986,0.69944,0.80933,-0.60759,-0.24906,0.86718,0.31771,0.49221,-0.88194,-0.44914,0.69719,-0.10314,0.4017,-0.88181,-0.96565,-0.41139,0.63371,-0.88532,-0.58594,-0.54438,-0.11682,0.37928,0.85172,0.94603,0.23058,-0.50786,0.59249,-0.79036,-0.70437,0.11624,0.066326,0.27177,0.67568,-0.77763,-0.38701,-0.91549,-0.65286,-0.93045,0.60904,0.089044,-0.25655,-0.24032,-0.37864,0.40009,-0.022025,0.7125,0.69467,0.54297,0.83411,-0.14901,0.77572,-0.9544,-0.72376,-0.833,0.72165,0.72319,-0.035539,-0.51165,-0.98217,0.29605,-0.93708,0.57924,-0.40207,0.79987,-0.31426,-0.81586,-0.59265,0.88957,0.97336,-0.055358,0.047895,-0.046851,-0.78073,0.67401,-0.84604,0.2059,0.78847,-0.041191,-0.99133,-0.86332,-0.30285,0.25739,0.34233,-0.76571,0.020081,-0.64126,0.022016,-0.97269,0.027126,0.65816,-0.56069,-0.68026,-0.51425,0.26391,-0.83203,-0.29924,0.5662,0.58918,0.63527,-0.51181,0.24056,0.12854,0.35621,-0.36786,-0.54693,0.9721,-0.0064012,0.79529,-0.43432,0.72437,0.47651,0.98669,-0.098073,0.40116,-0.41828,0.97948,0.08654,0.50758,-0.023241,-0.61995,-0.98499,-0.39838,-0.77287,0.55446,0.50197,-0.0051834,0.61714,-0.5021,0.47527,0.046598,0.063371,-0.60287,0.067916,-0.5315,-0.36159,-0.7177,-0.56185,0.53987,-0.80249,0.15355,-0.44358,0.6415,0.2995,-0.2626,0.15919,0.17472,-0.68319,0.19417,-0.52774,0.49019,0.61168,0.21632,-0.82086,0.011551,-0.75241,0.49534,-0.87967,-0.15149,0.2352,0.045856,0.83921,0.17236,-0.037981,0.60447,-0.51225,-0.19693,0.40759,0.91828,-0.01429,-0.99707,-0.69386,0.90714,-0.49699,0.78279,0.6524,-0.58569,0.27037,0.52699,0.83955,-0.23401,0.76792,-0.16616,0.59072,-0.23354,0.85422,-0.64913,-0.66945,0.20438,0.033314,0.99955,-0.5602,0.057222,0.21451,-0.5024,0.20091,-0.57448,0.31546,0.42311,-0.069193,0.53667,-0.39977,0.6173,-0.67287,0.41897,0.90992,-0.62198,-0.021749,0.49236,-0.23486,0.28186,0.58208,0.85147,0.88982,0.31116,0.84711,-0.27814,0.91074,0.64926,0.61102,-0.62346,-0.021715,-0.022285,-0.84752,-0.052364,-0.79774,0.47477,0.98239,0.77008,-0.30038,-0.89558,-0.8223,0.17963,-0.94344,0.92028,-0.87928,-0.39996,-0.96025,0.29883,0.97592,-0.59483,-0.35762,0.14987,-0.27211,0.77278,-0.0036594,-0.37881,-0.065496,0.93001,-0.86505,-0.69983,0.60637,-0.15888,-0.18382,0.69548,-0.89092,0.090445,-0.99225,0.89347,0.7966,-0.56755,0.2054,0.67828,-0.63897,-0.66157,-0.41951,0.86612,0.42366,-0.69433,-0.22243,-0.1269,-0.90823,-0.18797
-0.443,-0.71623,0.35747,-0.90766,0.53103,0.35941,0.50253,-0.48498,0.23209,0.50746,0.13765,0.20396,-0.69524,0.54982,-0.63631,0.24411,-0.16547,-0.77759,0.15042,0.46344,-0.26303,-0.3873,-0.29855,-0.53902,-0.13959,-0.47558,-0.82897,-0.082302,-0.26513,0.35946,0.78185,0.21973,-0.020197,-0.85711,0.94595,-0.21812,-0.41603,-0.32101,-0.16451,-0.74397,-0.078548,-0.75878,0.64875,-0.47854,0.19705,0.30889,0.5576,0.75074,0.39028,-0.98657,-0.35506,0.21478,-0.81777,0.89035,0.54057,0.081479,0.089432,-0.87282,-0.61594,0.34286,-0.51443,-0.96084,0.53823,0.34253,0.17605,-0.8201,0.70143,0.73088,0.14932,0.4595,0.72542,-0.90093,-0.43627,0.74785,-0.78858,-0.87319,-0.73214,0.68441,0.79697,0.52791,-0.58211,-0.63161,-0.11656,-0.33581,-0.83828,-0.97933,0.38506,-0.74422,0.5967,0.30762,-0.26713,-0.58865,-0.41187,0.20707,-0.62508,-0.14087,-0.8153,-0.73139,0.78584,-0.37314,-0.19522,-0.29845,-0.15471,-0.36496,0.48738,0.33197,0.61841,-0.48923,-0.11993,-0.1619,0.90179,0.20998,0.46846,0.28023,0.82114,-0.50274,0.97829,0.25188,-0.17874,-0.40899,0.02364,-0.17315,0.84466,-0.045016,-0.80181,-0.64204,0.0025658,0.83499,-0.20344,-0.27873,0.90835,0.32088,-0.72447,-0.29372,-0.27796,-0.75596,0.86008,-0.89042,0.84549,0.12143,0.57623,-0.42676,-0.94829,0.18637,0.86745,-0.090516,-0.099213,-0.18536,0.66874,0.34955,0.093108,0.66374,-0.80925,-0.33864,0.22695,0.22562,0.44033,0.46277,0.56847,-0.96871,0.19917,0.72774,0.69742,-0.83407,-0.096109,-0.18645,-0.71949,0.41281,-0.71503,-0.24798,0.92312,-0.54394,0.18319,-0.32693,-0.51371,-0.9976,0.52482,-0.60366,0.81289,0.37328,-0.43035,-0.69611,0.57946,0.94215,-0.65479,0.62126,0.05872,-0.46023,-0.48926,-0.61803,0.14198,-0.09725,0.94967,0.56229,-0.85351,0.11764,0.86996,0.070134,-0.13604,0.32353,-0.64154,0.62795,0.90821,0.83005,-0.29177,0.68274,-0.077536,-0.64205,-0.95274,0.91239,0.37056,0.638,0.66226,0.70985,-0.49104,-0.35363,0.04606,-0.23087,0.20396,-0.34839,0.78567,-0.9497,-0.54986,0.0044012,0.36638,0.52653,-0.41908,-0.048429,0.14448,-0.44731,0.76878,-0.3923,0.94741,0.44069,0.8027,0.32503,0.78007,-0.43636,-0.89871,-0.92915,0.74447,0.48181,0.65811,-0.64017,0.057845,0.2589,0.55006,-0.35795,-0.10757,-0.73634,-0.014723,-0.26993,0.16627,0.16298,0.2357,0.71671,-0.96047,-0.14441,0.90951,0.59674,0.84158,-0.40529,-0.78888,0.80944,0.15037,-0.41434,0.63382,0.21288,0.65643,0.95931,-0.18226,-0.57098,-0.48808,0.1684,0.35976,0.52958,0.51639,0.22247,0.6859,-0.15183,0.015598,-0.44034,-0.066976,0.42347,-0.97181,-0.14208,0.62984,-0.13326,0.67081,0.59837,-0.48778,0.048212,0.27649,-0.95195,0.33265,0.42894,0.54441,-0.33325,0.85087,0.82378,-0.12445,0.6667,-0.05157,-0.4694,0.55672,0.7971,0.65619,-0.18037,-0.91616,0.75553,0.30484,-0.51915,-0.0087116,-0.78128,0.74702,-0.25188,0.98518,0.023749,-0.18744,0.33368,0.66854,-0.51346,-0.49939,-0.043005,0.37137,0.85162,0.20069,0.76885,0.49337,-0.62523,-0.89503,-0.84503,-0.20399,0.43636,-0.95517,-0.42287,-0.58964,-0.11413,-0.924,-0.28659,0.28015,-0.51626,-0.51497,-0.63265,-0.49717,-0.73611,0.45807,-0.9964,0.37787,0.59628,0.82575,0.022128,-0.69296,0.075686,0.96906,-0.22715,0.89383,-0.14017,0.042244,0.3449,0.1485,-0.59299,-0.34044,0.024173,0.68478,0.65916,0.093954,0.88806,-0.85434,0.90381,0.40791,-0.063202,0.75666,-0.082052,-0.27741,-0.40441,-0.36439,0.45874,0.062486,-0.34765,-0.091151,-0.38989,-0.43108,-0.35951,0.63902,-0.020033,-0.57244,-0.17352,-0.23037,0.85168,-0.54532,0.41623,-0.32062,0.71738,-0.23332,0.50049,-0.19823,0.76758,-0.85381,-0.58793,-0.92648,0.72221,0.31139,0.51417,-0.80544,-0.90225,-0.54791,-0.40397,-0.60745,0.28578,-0.014666,0.72267,0.72753,0.71659,-0.012214,-0.27613,-0.69626,-0.87252,-0.29184,0.82827,-0.85847,-0.54669,0.81837,-0.83675,-0.67796,-0.038133,-0.95614,0.0023002,-0.99576,0.26574,0.8121,-0.70273,-0.96818,0.32144,0.69979,-0.76502,-0.45709,0.61723,0.30938,0.66542,-0.019116,-0.93533,-0.97449,0.28841,0.44849,0.53467,-0.79149,0.51839,-0.97431,0.94278,-0.41883,-0.28749,-0.41341,0.019771,-0.42635,0.67959,-0.58296,0.80351,-0.31665,-0.62566,0.51334,0.88624,-0.47509,-0.31972,-0.31647,-0.31456,-0.74935,0.73703,-0.43141,-0.90693,-0.69725,0.34911,0.69966,-0.99289,0.9414,0.53057,-0.86204,0.91696,-0.50974,-0.4323,-0.50211,0.52532,0.00080155,-0.64179,0.023058,-0.80182,-0.38591,-0.97714,-0.042291,0.96499,0.35698,-0.1391,0.7734,0.20574,-0.66619,-0.18856,0.79366,0.87373,-0.50706,0.43262
0.093763,-0.15648,0.51548,-0.80574,0.5904,0.3102,-0.48981,0.68143,-0.053422,-0.23911,-0.061219,-0.47406,0.65163,0.63461,-0.47239,-0.2981,-0.90069,0.5605,-0.88044,0.29549,0.25124,0.017017,0.878,0.68862,-0.63037,0.20569,-0.47504,0.92618,0.97596,-0.72689,-0.33167,0.23533,-0.66415,0.0433,0.29798,0.66276,-0.1367,0.90326,0.9661,0.99816,0.96328,0.17901,0.96533,0.18871,-0.058151,-0.18476,-0.15309,0.036104,-0.86401,0.20434,0.56948,-0.61651,0.15242,-0.58213,-0.29956,0.73988,0.29462,-0.19084,-0.72225,0.48252,-0.1152,-0.33828,-0.20642,-0.12271,-0.6905,-0.77659,0.12112,0.22513,0.69036,0.7815,-0.031407,-0.02086,0.077193,-0.45941,-0.71592,0.72088,-0.93822,0.11807,-0.76369,0.63641,0.81031,0.19442,-0.97343,-0.40531,0.55448,-0.90311,0.11334,0.09908,0.88602,0.49826,-0.2616,-0.22346,-0.52525,0.92885,-0.46764,-0.096522,-0.98436,-0.80281,0.40645,-0.66759,0.96567,0.37107,-0.28079,0.30738,-0.78816,0.78878,0.49724,-0.95893,-0.48477,-0.21848,-0.11207,-0.22551,0.14205,-0.63877,0.60112,-0.096722,-0.86611,-0.72426,0.9687,0.36036,-0.83481,-0.56454,0.54191,0.24743,-0.020472,-0.32209,-0.13656,0.42715,0.49964,0.51302,-0.93615,-0.90489,0.67345,-0.10111,0.24056,-0.46312,-0.20196,-0.39268,0.60074,-0.46182,0.56059,0.60164,-0.10694,0.74511,0.6219,-0.50663,-0.58866,-0.44943,0.21926,-0.12298,0.12384,-0.73132,-0.70697,-0.14,0.63728,0.63884,-0.30621,-0.27994,0.41114,0.72742,-0.88805,-0.8046,0.83364,0.32319,0.67939,-0.77477,-0.47974,-0.51285,-0.46385,0.04756,0.52483,-0.25827,-0.33486,-0.62457,-0.69168,-0.36716,0.15211,0.34454,-0.21463,0.43887,0.18995,-0.20578,-0.52927,0.69275,-0.81931,-0.19231,0.65996,0.049275,-0.82267,-0.11494,-0.66047,-0.23471,-0.84807,-0.6084,0.18198,-0.63231,-0.041031,0.92774,0.085334,-0.66078,0.93785,0.79689,0.085626,0.28548,0.56089,0.71443,0.27865,0.26667,0.21487,-0.75195,0.81891,0.24985,-0.687,-0.93027,-0.35169,0.53919,-0.3494,0.077203,0.71434,-0.8081,-0.28699,-0.17114,-0.29997,0.99866,0.92423,0.6529,-0.19489,-0.20185,0.40165,0.24465,-0.12202,-0.033411,0.94461,-0.031923,0.99076,0.046627,-0.3396,0.76013,-0.067596,0.02763,-0.89562,0.013589,0.25318,0.85259,0.3887,0.59236,0.82838,0.65912,-0.068675,-0.753,0.30977,-0.3817,0.39651,0.87535,-0.85957,0.3964,0.92858,-0.46561,-0.4645,0.0034021,-0.0035441,-0.20716,0.18766,-0.73805,0.21244,0.60288,-0.62106,0.52087,-0.64696,-0.20201,0.41602,0.35981,0.85834,-0.25284,-0.7267,-0.15786,0.77406,0.71154,0.7976,-0.31787,0.71331,-0.10599,-0.003791,0.74563,0.24576,-0.97965,-0.719,-0.72048,0.67143,-0.90087,0.77313,-0.7596,-0.31399,-0.017708,-0.11387,0.35844,-0.049291,0.95169,0.47804,-0.97029,-0.43954,-0.59257,0.67005,0.72961,-0.86126,0.86942,0.014871,-0.75324,-0.71532,0.3247,0.062098,0.36982,0.30274,0.81032,-0.85956,0.84537,-0.088313,0.10392,0.25982,-0.96416,0.62718,0.14283,0.62269,0.17481,-0.067561,-0.64232,-0.83001,0.42529,0.95451,0.063379,0.60234,0.70123,0.39314,-0.17363,-0.89234,-0.46191,-0.12173,0.096018,0.90849,0.50572,-0.73592,0.51966,0.87337,0.72331,0.15714,-0.28816,-0.59477,0.42353,0.89204,0.59128,-0.036686,-0.9445,-0.28643,0.74183,0.77185,-0.13713,0.020199,-0.58568,0.54862,0.80366,-0.17439,0.62756,-0.59153,0.44265,0.32587,0.41217,-0.19406,0.7429,0.50245,-0.84745,0.86461,0.0068277,-0.8781,0.72196,0.48326,-0.74997,0.9689,0.43494,0.91179,0.76169,0.33779,0.57962,0.47147,-0.014131,0.54296,0.16701,0.29132,-0.56442,-0.67471,0.15016,-0.9028,0.71876,-0.60428,0.84097,0.45737,0.96199,0.98998,-0.19123,0.16113,0.53649,-0.055754,-0.58017,0.092905,0.77266,0.81688,0.45186,-0.27799,0.38342,-0.75729,-0.57184,-0.29075,-0.072182,-0.66032,0.81882,0.070235,-0.73016,-0.23867,-0.14903,-0.46752,0.94786,0.84954,0.40601,0.14167,-0.45104,-0.13525,0.45836,0.61656,0.81893,0.90221,0.3768,-0.84531,0.31623,0.91503,0.88246,0.99408,0.018045,0.73577,0.70674,-0.94771,-0.4812,-0.12411,0.11413,-0.24568,-0.86411,0.16178,0.99427,-0.060482,-0.93662,-0.62678,-0.7751,0.12267,-0.048843,-0.89682,-0.23497,0.41238,-0.76369,0.33165,0.58658,0.097341,0.22266,0.59221,-0.7746,0.30214,0.83785,0.53205,-0.013401,-0.27105,0.50231,-0.12937,-0.15494,-0.70078,0.67032,-0.61816,0.63048,0.68249,0.14907,-0.66643,0.060918,-0.87176,-0.90364,0.30492,0.61403,-0.13447,0.26892,0.35693,0.022058,-0.8779,0.2849,-0.38376,0.25293,-0.88862,-0.16756,-0.57994,-0.24502,-0.11445,-0.37505,0.35224,-0.47582,0.32146,0.84267
0.91501,0.83147,0.48626,0.64692,-0.62625,-0.67478,0.011914,-0.49144,-0.29668,0.13564,-0.9762,0.30816,0.076685,0.73739,-0.70892,0.026499,0.80543,-0.22052,-0.53044,-0.098153,0.56045,0.021543,0.75189,-0.61047,0.80976,0.42243,0.60203,0.093611,-0.92452,0.44245,0.39749,0.71888,0.95736,-0.80654,0.60066,0.60673,-0.96903,0.84066,-0.39709,-0.65776,-0.68719,-0.54762,0.4605,-0.95497,0.3919,0.63996,-0.81835,0.88725,-0.49042,-0.22646,-0.057286,0.47685,0.36673,0.41856,0.32402,-0.47044,0.087772,-0.10325,0.39253,0.040105,0.37559,-0.15138,0.61703,0.667,-0.60027,-0.72741,0.85922,0.9799,0.47728,0.96461,0.68971,-0.61498,0.39033,-0.58308,-0.66708,0.86881,0.87828,0.7082,0.97684,-0.79956,0.35078,-0.40013,0.79438,-0.87591,0.81027,0.33583,-0.20696,-0.029541,0.36743,0.16637,0.37006,0.10356,0.061745,-0.13503,0.59566,0.21971,-0.15378,-0.71595,0.11148,0.24499,-0.19563,-0.4117,0.11664,0.91387,0.36312,0.033116,-0.75963,0.84735,0.50389,0.63228,-0.87996,-0.71563,-0.64629,-0.9099,0.49169,-0.54457,0.8788,-0.5644,0.89116,0.055694,0.43914,-0.74869,-0.91468,-0.52711,-0.61351,-0.57971,0.99512,0.23667,0.67044,-0.1722,-0.28626,-0.30243,-0.7228,0.92706,0.6223,-0.48431,-0.9052,-0.90762,-0.42811,0.49804,0.33702,0.79222,0.2926,0.867,-0.030903,0.56885,0.7993,0.43334,0.14947,-0.12436,-0.20836,-0.87907,0.26228,-0.016387,0.77247,0.063778,0.033981,-0.091575,-0.78133,-0.84386,-0.88731,0.8161,0.97394,0.033958,0.065247,-0.11231,-0.82637,0.57014,-0.65022,-0.47025,-0.9853,0.78186,0.70613,-0.35615,0.91283,0.39923,0.49533,-0.13698,-0.95029,0.30008,0.92432,-0.25056,-0.10396,0.011999,-0.48948,0.97688,0.71752,0.9453,0.67651,-0.21318,-0.70469,0.57929,0.17404,0.98472,0.82038,-0.0041024,-0.53642,-0.76875,0.42483,-0.44243,-0.18509,-0.14152,0.080212,-0.99716,-0.12669,0.92722,0.83467,0.248,-0.77838,-0.058474,0.22174,0.47712,-0.085383,0.77084,-0.19642,-0.53176,0.66369,0.98341,0.97655,0.49507,0.092804,0.46281,-0.42583,-0.28919,-0.12405,0.14693,0.72411,0.19888,0.48494,0.17672,0.56345,-0.32438,0.2874,0.27806,0.30633,-0.48021,-0.5406,-0.11134,-0.34869,-0.18454,-0.56064,-0.60015,0.077493,-0.86364,-0.57519,0.38238,0.5651,0.64436,-0.44192,-0.61819,0.78025,-0.75818,-0.94134,-0.90443,-0.86144,0.46748,0.94075,0.50747,-0.49983,0.30162,-0.44478,-0.15849,-0.43454,0.66746,-0.57111,-0.307,-0.75261,0.71069,-0.74096,-0.11963,-0.71272,0.11459,-0.066486,-0.55661,0.7168,-0.88637,-0.8624,0.34159,0.87801,0.082708,-0.23137,0.17514,-0.025139,0.876,-0.53781,0.21764,0.75973,0.50386,-0.90028,-0.4336,-0.1064,-0.64441,-0.56706,-0.44347,-0.13341,0.91876,0.3618,0.11089,0.13486,-0.68661,0.97049,0.088835,-0.061213,-0.88378,-0.44243,0.63577,-0.26768,-0.11397,-0.84681,0.75083,0.43021,0.67851,0.48741,0.7527,0.97508,0.092959,-0.14792,-0.57343,0.11062,-0.76065,0.25795,0.96346,-0.83115,-0.70839,-0.47936,0.035082,0.84472,-0.2437,-0.23217,-0.28993,0.35714,-0.71095,-0.87072,-0.80274,-0.71825,0.18839,-0.9455,0.13372,0.48474,-0.7799,-0.094355,-0.41815,0.72038,-0.93473,0.83095,-0.20826,-0.56745,0.73545,0.74707,0.56218,0.70361,0.98077,-0.7121,0.44569,-0.57233,0.66177,0.58376,-0.3532,-0.75947,-0.60169,-0.97047,-0.21313,0.53443,0.85769,0.63247,0.19067,-0.78592,0.015204,0.66238,0.41734,0.37531,0.82107,-0.11825,0.32167,0.4118,-0.22329,0.096502,-0.73314,-0.86665,-0.73321,0.6626,-0.52723,-0.17738,-0.55669,-0.60861,-0.83346,-0.23872,0.71711,0.5935,-0.98005,-0.66152,0.56217,0.013667,0.50168,0.77457,-0.53297,-0.478,-0.39759,-0.42597,0.23106,0.29014,-0.20181,-0.49734,-0.05554,-0.92997,0.40266,-0.35088,0.76091,0.08739,0.23454,0.55012,0.1411,-0.6426,0.92333,-0.60239,0.82763,0.64204,-0.19132,-0.417,0.17085,0.28416,0.50831,-0.32916,0.73504,0.010172,0.87512,-0.64158,-0.88429,0.5326,0.27914,-0.32293,0.26797,-0.94862,0.95141,-0.99121,-0.66234,0.483,-0.20376,0.57155,-0.57396,0.54531,0.4396,-0.66438,-0.58418,0.080516,-0.54469,-0.56188,0.28468,-0.029539,0.48643,0.26667,0.34204,0.0082564,0.81097,0.070412,-0.17917,0.94669,-0.25397,-0.078905,-0.89612,-0.41289,0.29657,-0.73279,-0.087466,-0.31439,0.40355,0.35246,-0.16124,0.80752,-0.064531,-0.2984,0.31298,-0.75171,0.27684,-0.8429,0.83185,0.89488,-0.85183,-0.4737,-0.56167,-0.35945,0.2659,0.80856,0.92592,0.1315,-0.77974,-0.56106,0.033982,0.48889,-0.63745,-0.93189,0.45753,-0.73825,0.32986,0.26599,0.3878,0.65679,0.13949,-0.34118,0.96803
